digraph Tree {
node [shape=box, style="filled, rounded", color="black", fontname=helvetica] ;
edge [fontname=helvetica] ;
0 [label="gill-color <= 3.5\ngini = 0.5\nsamples = 5686\nvalue = [2936, 2750]\nclass = 0", fillcolor="#e5813910"] ;
1 [label="population <= 3.5\ngini = 0.28\nsamples = 2313\nvalue = [383, 1930]\nclass = 1", fillcolor="#399de5cc"] ;
0 -> 1 [labeldistance=2.5, labelangle=45, headlabel="True"] ;
2 [label="spore-print-color <= 1.5\ngini = 0.21\nsamples = 411\nvalue = [361, 50]\nclass = 0", fillcolor="#e58139dc"] ;
1 -> 2 ;
3 [label="gini = 0.0\nsamples = 34\nvalue = [0, 34]\nclass = 1", fillcolor="#399de5ff"] ;
2 -> 3 ;
4 [label="gill-size <= 0.5\ngini = 0.08\nsamples = 377\nvalue = [361, 16]\nclass = 0", fillcolor="#e58139f4"] ;
2 -> 4 ;
5 [label="gini = 0.0\nsamples = 361\nvalue = [361, 0]\nclass = 0", fillcolor="#e58139ff"] ;
4 -> 5 ;
6 [label="gini = 0.0\nsamples = 16\nvalue = [0, 16]\nclass = 1", fillcolor="#399de5ff"] ;
4 -> 6 ;
7 [label="stalk-root <= 2.0\ngini = 0.02\nsamples = 1902\nvalue = [22, 1880]\nclass = 1", fillcolor="#399de5fc"] ;
1 -> 7 ;
8 [label="stalk-surface-below-ring <= 0.5\ngini = 0.01\nsamples = 1889\nvalue = [9, 1880]\nclass = 1", fillcolor="#399de5fe"] ;
7 -> 8 ;
9 [label="stalk-root <= 0.5\ngini = 0.46\nsamples = 25\nvalue = [9, 16]\nclass = 1", fillcolor="#399de570"] ;
8 -> 9 ;
10 [label="gini = 0.0\nsamples = 9\nvalue = [9, 0]\nclass = 0", fillcolor="#e58139ff"] ;
9 -> 10 ;
11 [label="gini = 0.0\nsamples = 16\nvalue = [0, 16]\nclass = 1", fillcolor="#399de5ff"] ;
9 -> 11 ;
12 [label="gini = 0.0\nsamples = 1864\nvalue = [0, 1864]\nclass = 1", fillcolor="#399de5ff"] ;
8 -> 12 ;
13 [label="gini = 0.0\nsamples = 13\nvalue = [13, 0]\nclass = 0", fillcolor="#e58139ff"] ;
7 -> 13 ;
14 [label="spore-print-color <= 1.5\ngini = 0.37\nsamples = 3373\nvalue = [2553, 820]\nclass = 0", fillcolor="#e58139ad"] ;
0 -> 14 [labeldistance=2.5, labelangle=-45, headlabel="False"] ;
15 [label="stalk-root <= 0.5\ngini = 0.22\nsamples = 481\nvalue = [59, 422]\nclass = 1", fillcolor="#399de5db"] ;
14 -> 15 ;
16 [label="gini = 0.0\nsamples = 59\nvalue = [59, 0]\nclass = 0", fillcolor="#e58139ff"] ;
15 -> 16 ;
17 [label="gini = 0.0\nsamples = 422\nvalue = [0, 422]\nclass = 1", fillcolor="#399de5ff"] ;
15 -> 17 ;
18 [label="gill-size <= 0.5\ngini = 0.24\nsamples = 2892\nvalue = [2494, 398]\nclass = 0", fillcolor="#e58139d6"] ;
14 -> 18 ;
19 [label="ring-number <= 0.5\ngini = 0.05\nsamples = 2401\nvalue = [2339, 62]\nclass = 0", fillcolor="#e58139f8"] ;
18 -> 19 ;
20 [label="gini = 0.0\nsamples = 28\nvalue = [0, 28]\nclass = 1", fillcolor="#399de5ff"] ;
19 -> 20 ;
21 [label="cap-color <= 0.5\ngini = 0.03\nsamples = 2373\nvalue = [2339, 34]\nclass = 0", fillcolor="#e58139fb"] ;
19 -> 21 ;
22 [label="spore-print-color <= 6.0\ngini = 0.48\nsamples = 28\nvalue = [17, 11]\nclass = 0", fillcolor="#e581395a"] ;
21 -> 22 ;
23 [label="gini = 0.0\nsamples = 11\nvalue = [0, 11]\nclass = 1", fillcolor="#399de5ff"] ;
22 -> 23 ;
24 [label="gini = 0.0\nsamples = 17\nvalue = [17, 0]\nclass = 0", fillcolor="#e58139ff"] ;
22 -> 24 ;
25 [label="ring-number <= 1.5\ngini = 0.02\nsamples = 2345\nvalue = [2322, 23]\nclass = 0", fillcolor="#e58139fc"] ;
21 -> 25 ;
26 [label="gini = 0.0\nsamples = 2092\nvalue = [2092, 0]\nclass = 0", fillcolor="#e58139ff"] ;
25 -> 26 ;
27 [label="spore-print-color <= 6.0\ngini = 0.17\nsamples = 253\nvalue = [230, 23]\nclass = 0", fillcolor="#e58139e6"] ;
25 -> 27 ;
28 [label="gini = 0.0\nsamples = 23\nvalue = [0, 23]\nclass = 1", fillcolor="#399de5ff"] ;
27 -> 28 ;
29 [label="gini = 0.0\nsamples = 230\nvalue = [230, 0]\nclass = 0", fillcolor="#e58139ff"] ;
27 -> 29 ;
30 [label="stalk-shape <= 0.5\ngini = 0.43\nsamples = 491\nvalue = [155, 336]\nclass = 1", fillcolor="#399de589"] ;
18 -> 30 ;
31 [label="habitat <= 1.5\ngini = 0.34\nsamples = 428\nvalue = [92, 336]\nclass = 1", fillcolor="#399de5b9"] ;
30 -> 31 ;
32 [label="gini = 0.0\nsamples = 226\nvalue = [0, 226]\nclass = 1", fillcolor="#399de5ff"] ;
31 -> 32 ;
33 [label="bruises <= 0.5\ngini = 0.5\nsamples = 202\nvalue = [92, 110]\nclass = 1", fillcolor="#399de52a"] ;
31 -> 33 ;
34 [label="population <= 2.5\ngini = 0.11\nsamples = 98\nvalue = [92, 6]\nclass = 0", fillcolor="#e58139ee"] ;
33 -> 34 ;
35 [label="gini = 0.0\nsamples = 6\nvalue = [0, 6]\nclass = 1", fillcolor="#399de5ff"] ;
34 -> 35 ;
36 [label="gini = 0.0\nsamples = 92\nvalue = [92, 0]\nclass = 0", fillcolor="#e58139ff"] ;
34 -> 36 ;
37 [label="gini = 0.0\nsamples = 104\nvalue = [0, 104]\nclass = 1", fillcolor="#399de5ff"] ;
33 -> 37 ;
38 [label="gini = 0.0\nsamples = 63\nvalue = [63, 0]\nclass = 0", fillcolor="#e58139ff"] ;
30 -> 38 ;
}